0.315947
1.01761
0.226809
-1.27866
2.51269
-0.451185
-1.07788
-0.465896
-0.443142
0.303954
-1.13445
-0.280524
0.393198
0.512659
-0.375548
-0.160239
0.322652
-0.199983
-0.150828
0.927273
-0.445356
-0.189972
-1.48922
0.339939
0.101174
0.798947
1.41325
-0.0353237
-0.444864
0.286286
0.464222
-1.06048
-1.1141
-1.91079
0.0369917
-0.656452
-2.14311
-1.24475
0.734731
-0.217175
2.55681
0.306706
-0.878323
2.42535
0.505205
0.472607
1.24409
1.63536
1.90861
-0.832826
1.89121
-0.230325
0.278945
0.928235
0.467338
0.423514
1.2223
-0.0936219
-0.143618
-0.840706
-0.444675
-0.448078
0.892136
0.839559
-1.13887
-0.177386
0.116317
1.0673
-0.296758
0.17399
-0.979308
1.05505
-0.555955
-0.491901
0.33378
1.12199
1.32559
-1.26816
0.20423
0.162346
-0.0581171
0.0643369
-0.184507
0.564809
-0.107523
0.868833
0.0129222
1.67784
-0.465263
-0.455258
0.315947
1.01761
0.226809
-1.27866
2.51269
-0.451185
-1.07788
-0.465896
-0.443142
0.303954
-1.13445
-0.280524
0.393198
0.512659
-0.375548
-0.160239
0.322652
-0.199983
-0.150828
0.927273
-0.445356
-0.189972
-1.48922
0.339939
0.101174
0.798947
1.41325
-0.0353237
-0.444864
0.286286
0.464222
-1.06048
-1.1141
-1.91079
0.0369917
-0.656452
-2.14311
-1.24475
0.734731
-0.217175
2.55681
0.306706
-0.878323
2.42535
0.505205
0.472607
1.24409
1.63536
1.90861
-0.832826
1.89121
-0.230325
0.278945
0.928235
0.467338
0.423514
1.2223
-0.0936219
-0.143618
-0.840706
-0.444675
-0.448078
0.892136
0.839559
-1.13887
-0.177386
0.116317
1.0673
-0.296758
0.17399
-0.979308
1.05505
-0.555955
-0.491901
0.33378
1.12199
1.32559
-1.26816
0.20423
0.162346
-0.0581171
0.0643369
-0.184507
0.564809
-0.107523
0.868833
0.0129222
1.67784
-0.465263
-0.455258
0.315947
1.01761
0.226809
-1.27866
2.51269
-0.451185
-1.07788
-0.465896
-0.443142
0.303954
-1.13445
-0.280524
0.393198
0.512659
-0.375548
-0.160239
0.322652
-0.199983
-0.150828
0.927273
-0.445356
-0.189972
-1.48922
0.339939
0.101174
0.798947
1.41325
-0.0353237
-0.444864
0.286286
0.464222
-1.06048
-1.1141
-1.91079
0.0369917
-0.656452
-2.14311
-1.24475
0.734731
-0.217175
2.55681
0.306706
-0.878323
2.42535
0.505205
0.472607
1.24409
1.63536
1.90861
-0.832826
1.89121
-0.230325
0.278945
0.928235
0.467338
0.423514
1.2223
-0.0936219
-0.143618
-0.840706
-0.444675
-0.448078
0.892136
0.839559
-1.13887
-0.177386
0.116317
1.0673
-0.296758
0.17399
-0.979308
1.05505
-0.555955
-0.491901
0.33378
1.12199
1.32559
-1.26816
0.20423
0.162346
-0.0581171
0.0643369
-0.184507
0.564809
-0.107523
0.868833
0.0129222
1.67784
-0.465263
-0.455258
0.315947
1.01761
0.226809
-1.27866
2.51269
-0.451185
-1.07788
-0.465896
-0.443142
0.303954
-1.13445
-0.280524
0.393198
0.512659
-0.375548
-0.160239
0.322652
-0.199983
-0.150828
0.927273
-0.445356
-0.189972
-1.48922
0.339939
0.101174
0.798947
1.41325
-0.0353237
-0.444864
0.286286
0.464222
-1.06048
-1.1141
-1.91079
0.0369917
-0.656452
-2.14311
-1.24475
0.734731
-0.217175
2.55681
0.306706
-0.878323
2.42535
0.505205
0.472607
1.24409
1.63536
1.90861
-0.832826
1.89121
-0.230325
0.278945
0.928235
0.467338
0.423514
1.2223
-0.0936219
-0.143618
-0.840706
-0.444675
-0.448078
0.892136
0.839559
-1.13887
-0.177386
0.116317
1.0673
-0.296758
0.17399
-0.979308
1.05505
-0.555955
-0.491901
0.33378
1.12199
1.32559
-1.26816
0.20423
0.162346
-0.0581171
0.0643369
-0.184507
0.564809
-0.107523
0.868833
0.0129222
1.67784
-0.465263
-0.455258
0.315947
1.01761
0.226809
-1.27866
2.51269
-0.451185
-1.07788
-0.465896
-0.443142
0.303954
-1.13445
-0.280524
0.393198
0.512659
-0.375548
-0.160239
0.322652
-0.199983
-0.150828
0.927273
-0.445356
-0.189972
-1.48922
0.339939
0.101174
0.798947
1.41325
-0.0353237
-0.444864
0.286286
0.464222
-1.06048
-1.1141
-1.91079
0.0369917
-0.656452
-2.14311
-1.24475
0.734731
-0.217175
2.55681
0.306706
-0.878323
2.42535
0.505205
0.472607
1.24409
1.63536
1.90861
-0.832826
1.89121
-0.230325
0.278945
0.928235
0.467338
0.423514
1.2223
-0.0936219
-0.143618
-0.840706
-0.444675
-0.448078
0.892136
0.839559
-1.13887
-0.177386
0.116317
1.0673
-0.296758
0.17399
-0.979308
1.05505
-0.555955
-0.491901
0.33378
1.12199
1.32559
-1.26816
0.20423
0.162346
-0.0581171
0.0643369
-0.184507
0.564809
-0.107523
0.868833
0.0129222
1.67784
-0.465263
-0.455258
0.315947
1.01761
0.226809
-1.27866
2.51269
-0.451185
-1.07788
-0.465896
-0.443142
0.303954
-1.13445
-0.280524
0.393198
0.512659
-0.375548
-0.160239
0.322652
-0.199983
-0.150828
0.927273
-0.445356
-0.189972
-1.48922
0.339939
0.101174
0.798947
1.41325
-0.0353237
-0.444864
0.286286
0.464222
-1.06048
-1.1141
-1.91079
0.0369917
-0.656452
-2.14311
-1.24475
0.734731
-0.217175
2.55681
0.306706
-0.878323
2.42535
0.505205
0.472607
1.24409
1.63536
1.90861
-0.832826
1.89121
-0.230325
0.278945
0.928235
0.467338
0.423514
1.2223
-0.0936219
-0.143618
-0.840706
-0.444675
-0.448078
0.892136
0.839559
-1.13887
-0.177386
0.116317
1.0673
-0.296758
0.17399
-0.979308
1.05505
-0.555955
-0.491901
0.33378
1.12199
1.32559
-1.26816
0.20423
0.162346
-0.0581171
0.0643369
-0.184507
0.564809
-0.107523
0.868833
0.0129222
1.67784
-0.465263
-0.455258
0.315947
1.01761
0.226809
-1.27866
2.51269
-0.451185
-1.07788
-0.465896
-0.443142
0.303954
-1.13445
-0.280524
0.393198
0.512659
-0.375548
-0.160239
0.322652
-0.199983
-0.150828
0.927273
-0.445356
-0.189972
-1.48922
0.339939
0.101174
0.798947
1.41325
-0.0353237
-0.444864
0.286286
0.464222
-1.06048
-1.1141
-1.91079
0.0369917
-0.656452
-2.14311
-1.24475
0.734731
-0.217175
2.55681
0.306706
-0.878323
2.42535
0.505205
0.472607
1.24409
1.63536
1.90861
-0.832826
1.89121
-0.230325
0.278945
0.928235
0.467338
0.423514
1.2223
-0.0936219
-0.143618
-0.840706
-0.444675
-0.448078
0.892136
0.839559
-1.13887
-0.177386
0.116317
1.0673
-0.296758
0.17399
-0.979308
1.05505
-0.555955
-0.491901
0.33378
1.12199
1.32559
-1.26816
0.20423
0.162346
-0.0581171
0.0643369
-0.184507
0.564809
-0.107523
0.868833
0.0129222
1.67784
-0.465263
-0.455258
0.315947
1.01761
0.226809
-1.27866
2.51269
-0.451185
-1.07788
-0.465896
-0.443142
0.303954
-1.13445
-0.280524
0.393198
0.512659
-0.375548
-0.160239
0.322652
-0.199983
-0.150828
0.927273
-0.445356
-0.189972
-1.48922
0.339939
0.101174
0.798947
1.41325
-0.0353237
-0.444864
0.286286
0.464222
-1.06048
-1.1141
-1.91079
0.0369917
-0.656452
-2.14311
-1.24475
0.734731
-0.217175
2.55681
0.306706
-0.878323
2.42535
0.505205
0.472607
1.24409
1.63536
1.90861
-0.832826
1.89121
-0.230325
0.278945
0.928235
0.467338
0.423514
1.2223
-0.0936219
-0.143618
-0.840706
-0.444675
-0.448078
0.892136
0.839559
-1.13887
-0.177386
0.116317
1.0673
-0.296758
0.17399
-0.979308
1.05505
-0.555955
-0.491901
0.33378
1.12199
1.32559
-1.26816
0.20423
0.162346
-0.0581171
0.0643369
-0.184507
0.564809
-0.107523
0.868833
0.0129222
1.67784
-0.465263
-0.455258
0.315947
1.01761
0.226809
-1.27866
2.51269
-0.451185
-1.07788
-0.465896
-0.443142
0.303954
-1.13445
-0.280524
0.393198
0.512659
-0.375548
-0.160239
0.322652
-0.199983
-0.150828
0.927273
-0.445356
-0.189972
-1.48922
0.339939
0.101174
0.798947
1.41325
-0.0353237
-0.444864
0.286286
0.464222
-1.06048
-1.1141
-1.91079
0.0369917
-0.656452
-2.14311
-1.24475
0.734731
-0.217175
2.55681
0.306706
-0.878323
2.42535
0.505205
0.472607
1.24409
1.63536
1.90861
-0.832826
1.89121
-0.230325
0.278945
0.928235
0.467338
0.423514
1.2223
-0.0936219
-0.143618
-0.840706
-0.444675
-0.448078
0.892136
0.839559
-1.13887
-0.177386
0.116317
1.0673
-0.296758
0.17399
-0.979308
1.05505
-0.555955
-0.491901
0.33378
1.12199
1.32559
-1.26816
0.20423
0.162346
-0.0581171
0.0643369
-0.184507
0.564809
-0.107523
0.868833
0.0129222
1.67784
-0.465263
-0.455258
0.315947
1.01761
0.226809
-1.27866
2.51269
-0.451185
-1.07788
-0.465896
-0.443142
0.303954
-1.13445
-0.280524
0.393198
0.512659
-0.375548
-0.160239
0.322652
-0.199983
-0.150828
0.927273
-0.445356
-0.189972
-1.48922
0.339939
0.101174
0.798947
1.41325
-0.0353237
-0.444864
0.286286
0.464222
-1.06048
-1.1141
-1.91079
0.0369917
-0.656452
-2.14311
-1.24475
0.734731
-0.217175
2.55681
0.306706
-0.878323
2.42535
0.505205
0.472607
1.24409
1.63536
1.90861
-0.832826
1.89121
-0.230325
0.278945
0.928235
0.467338
0.423514
1.2223
-0.0936219
-0.143618
-0.840706
-0.444675
-0.448078
0.892136
0.839559
-1.13887
-0.177386
0.116317
1.0673
-0.296758
0.17399
-0.979308
1.05505
-0.555955
-0.491901
0.33378
1.12199
1.32559
-1.26816
0.20423
0.162346
-0.0581171
0.0643369
-0.184507
0.564809
-0.107523
0.868833
0.0129222
1.67784
-0.465263
-0.455258
0.315947
1.01761
0.226809
-1.27866
2.51269
-0.451185
-1.07788
-0.465896
-0.443142
0.303954
-1.13445
-0.280524
0.393198
0.512659
-0.375548
-0.160239
0.322652
-0.199983
-0.150828
0.927273
-0.445356
-0.189972
-1.48922
0.339939
0.101174
0.798947
1.41325
-0.0353237
-0.444864
0.286286
0.464222
-1.06048
-1.1141
-1.91079
0.0369917
-0.656452
-2.14311
-1.24475
0.734731
-0.217175
2.55681
0.306706
-0.878323
2.42535
0.505205
0.472607
1.24409
1.63536
1.90861
-0.832826
1.89121
-0.230325
0.278945
0.928235
0.467338
0.423514
1.2223
-0.0936219
-0.143618
-0.840706
-0.444675
-0.448078
0.892136
0.839559
-1.13887
-0.177386
0.116317
1.0673
-0.296758
0.17399
-0.979308
1.05505
-0.555955
-0.491901
0.33378
1.12199
1.32559
-1.26816
0.20423
0.162346
-0.0581171
0.0643369
-0.184507
0.564809
-0.107523
0.868833
0.0129222
1.67784
-0.465263
-0.455258
0.315947
1.01761
0.226809
-1.27866
2.51269
-0.451185
-1.07788
-0.465896
-0.443142
0.303954
-1.13445
-0.280524
0.393198
0.512659
-0.375548
-0.160239
0.322652
-0.199983
-0.150828
0.927273
-0.445356
-0.189972
-1.48922
0.339939
0.101174
0.798947
1.41325
-0.0353237
-0.444864
0.286286
0.464222
-1.06048
-1.1141
-1.91079
0.0369917
-0.656452
-2.14311
-1.24475
0.734731
-0.217175
2.55681
0.306706
-0.878323
2.42535
0.505205
0.472607
1.24409
1.63536
1.90861
-0.832826
1.89121
-0.230325
0.278945
0.928235
0.467338
0.423514
1.2223
-0.0936219
-0.143618
-0.840706
-0.444675
-0.448078
0.892136
0.839559
-1.13887
-0.177386
0.116317
1.0673
-0.296758
0.17399
-0.979308
1.05505
-0.555955
-0.491901
0.33378
1.12199
1.32559
-1.26816
0.20423
0.162346
-0.0581171
0.0643369
-0.184507
0.564809
-0.107523
0.868833
0.0129222
1.67784
-0.465263
-0.455258
0.315947
1.01761
0.226809
-1.27866
2.51269
-0.451185
-1.07788
-0.465896
-0.443142
0.303954
-1.13445
-0.280524
0.393198
0.512659
-0.375548
-0.160239
0.322652
-0.199983
-0.150828
0.927273
-0.445356
-0.189972
-1.48922
0.339939
0.101174
0.798947
1.41325
-0.0353237
-0.444864
0.286286
0.464222
-1.06048
-1.1141
-1.91079
0.0369917
-0.656452
-2.14311
-1.24475
0.734731
-0.217175
2.55681
0.306706
-0.878323
2.42535
0.505205
0.472607
1.24409
1.63536
1.90861
-0.832826
1.89121
-0.230325
0.278945
0.928235
0.467338
0.423514
1.2223
-0.0936219
-0.143618
-0.840706
-0.444675
-0.448078
0.892136
0.839559
-1.13887
-0.177386
0.116317
1.0673
-0.296758
0.17399
-0.979308
1.05505
-0.555955
-0.491901
0.33378
1.12199
1.32559
-1.26816
0.20423
0.162346
-0.0581171
0.0643369
-0.184507
0.564809
-0.107523
0.868833
0.0129222
1.67784
-0.465263
-0.455258
0.315947
1.01761
0.226809
-1.27866
2.51269
-0.451185
-1.07788
-0.465896
-0.443142
0.303954
-1.13445
-0.280524
0.393198
0.512659
-0.375548
-0.160239
0.322652
-0.199983
-0.150828
0.927273
-0.445356
-0.189972
-1.48922
0.339939
0.101174
0.798947
1.41325
-0.0353237
-0.444864
0.286286
0.464222
-1.06048
-1.1141
-1.91079
0.0369917
-0.656452
-2.14311
-1.24475
0.734731
-0.217175
2.55681
0.306706
-0.878323
2.42535
0.505205
0.472607
1.24409
1.63536
1.90861
-0.832826
1.89121
-0.230325
0.278945
0.928235
0.467338
0.423514
1.2223
-0.0936219
-0.143618
-0.840706
-0.444675
-0.448078
0.892136
0.839559
-1.13887
-0.177386
0.116317
1.0673
-0.296758
0.17399
-0.979308
1.05505
-0.555955
-0.491901
0.33378
1.12199
1.32559
-1.26816
0.20423
0.162346
-0.0581171
0.0643369
-0.184507
0.564809
-0.107523
0.868833
0.0129222
1.67784
-0.465263
-0.455258
0.315947
1.01761
0.226809
-1.27866
2.51269
-0.451185
-1.07788
-0.465896
-0.443142
0.303954
-1.13445
-0.280524
0.393198
0.512659
-0.375548
-0.160239
0.322652
-0.199983
-0.150828
0.927273
-0.445356
-0.189972
-1.48922
0.339939
0.101174
0.798947
1.41325
-0.0353237
-0.444864
0.286286
0.464222
-1.06048
-1.1141
-1.91079
0.0369917
-0.656452
-2.14311
-1.24475
0.734731
-0.217175
2.55681
0.306706
-0.878323
2.42535
0.505205
0.472607
1.24409
1.63536
1.90861
-0.832826
1.89121
-0.230325
0.278945
0.928235
0.467338
0.423514
1.2223
-0.0936219
-0.143618
-0.840706
-0.444675
-0.448078
0.892136
0.839559
-1.13887
-0.177386
0.116317
1.0673
-0.296758
0.17399
-0.979308
1.05505
-0.555955
-0.491901
0.33378
1.12199
1.32559
-1.26816
0.20423
0.162346
-0.0581171
0.0643369
-0.184507
0.564809
-0.107523
0.868833
0.0129222
1.67784
-0.465263
-0.455258
0.315947
1.01761
0.226809
-1.27866
2.51269
-0.451185
-1.07788
-0.465896
-0.443142
0.303954
-1.13445
-0.280524
0.393198
0.512659
-0.375548
-0.160239
0.322652
-0.199983
-0.150828
0.927273
-0.445356
-0.189972
-1.48922
0.339939
0.101174
0.798947
1.41325
-0.0353237
-0.444864
0.286286
0.464222
-1.06048
-1.1141
-1.91079
0.0369917
-0.656452
-2.14311
-1.24475
0.734731
-0.217175
2.55681
0.306706
-0.878323
2.42535
0.505205
0.472607
1.24409
1.63536
1.90861
-0.832826
1.89121
-0.230325
0.278945
0.928235
0.467338
0.423514
1.2223
-0.0936219
-0.143618
-0.840706
-0.444675
-0.448078
0.892136
0.839559
-1.13887
-0.177386
0.116317
1.0673
-0.296758
0.17399
-0.979308
1.05505
-0.555955
-0.491901
0.33378
1.12199
1.32559
-1.26816
0.20423
0.162346
-0.0581171
0.0643369
-0.184507
0.564809
-0.107523
0.868833
0.0129222
1.67784
-0.465263
-0.455258
0.315947
1.01761
0.226809
-1.27866
2.51269
-0.451185
-1.07788
-0.465896
-0.443142
0.303954
-1.13445
-0.280524
0.393198
0.512659
-0.375548
-0.160239
0.322652
-0.199983
-0.150828
0.927273
-0.445356
-0.189972
-1.48922
0.339939
0.101174
0.798947
1.41325
-0.0353237
-0.444864
0.286286
0.464222
-1.06048
-1.1141
-1.91079
0.0369917
-0.656452
-2.14311
-1.24475
0.734731
-0.217175
2.55681
0.306706
-0.878323
2.42535
0.505205
0.472607
1.24409
1.63536
1.90861
-0.832826
1.89121
-0.230325
0.278945
0.928235
0.467338
0.423514
1.2223
-0.0936219
-0.143618
-0.840706
-0.444675
-0.448078
0.892136
0.839559
-1.13887
-0.177386
0.116317
1.0673
-0.296758
0.17399
-0.979308
1.05505
-0.555955
-0.491901
0.33378
1.12199
1.32559
-1.26816
0.20423
0.162346
-0.0581171
0.0643369
-0.184507
0.564809
-0.107523
0.868833
0.0129222
1.67784
-0.465263
-0.455258
0.315947
1.01761
0.226809
-1.27866
2.51269
-0.451185
-1.07788
-0.465896
-0.443142
0.303954
-1.13445
-0.280524
0.393198
0.512659
-0.375548
-0.160239
0.322652
-0.199983
-0.150828
0.927273
-0.445356
-0.189972
-1.48922
0.339939
0.101174
0.798947
1.41325
-0.0353237
-0.444864
0.286286
0.464222
-1.06048
-1.1141
-1.91079
0.0369917
-0.656452
-2.14311
-1.24475
0.734731
-0.217175
2.55681
0.306706
-0.878323
2.42535
0.505205
0.472607
1.24409
1.63536
1.90861
-0.832826
1.89121
-0.230325
0.278945
0.928235
0.467338
0.423514
1.2223
-0.0936219
-0.143618
-0.840706
-0.444675
-0.448078
0.892136
0.839559
-1.13887
-0.177386
0.116317
1.0673
-0.296758
0.17399
-0.979308
1.05505
-0.555955
-0.491901
0.33378
1.12199
1.32559
-1.26816
0.20423
0.162346
-0.0581171
0.0643369
-0.184507
0.564809
-0.107523
0.868833
0.0129222
1.67784
-0.465263
-0.455258
0.315947
1.01761
0.226809
-1.27866
2.51269
-0.451185
-1.07788
-0.465896
-0.443142
0.303954
-1.13445
-0.280524
0.393198
0.512659
-0.375548
-0.160239
0.322652
-0.199983
-0.150828
0.927273
-0.445356
-0.189972
-1.48922
0.339939
0.101174
0.798947
1.41325
-0.0353237
-0.444864
0.286286
0.464222
-1.06048
-1.1141
-1.91079
0.0369917
-0.656452
-2.14311
-1.24475
0.734731
-0.217175
2.55681
0.306706
-0.878323
2.42535
0.505205
0.472607
1.24409
1.63536
1.90861
-0.832826
1.89121
-0.230325
0.278945
0.928235
0.467338
0.423514
1.2223
-0.0936219
-0.143618
-0.840706
-0.444675
-0.448078
0.892136
0.839559
-1.13887
-0.177386
0.116317
1.0673
-0.296758
0.17399
-0.979308
1.05505
-0.555955
-0.491901
0.33378
1.12199
1.32559
-1.26816
0.20423
0.162346
-0.0581171
0.0643369
-0.184507
0.564809
-0.107523
0.868833
0.0129222
1.67784
-0.465263
-0.455258
0.315947
1.01761
0.226809
-1.27866
2.51269
-0.451185
-1.07788
-0.465896
-0.443142
0.303954
-1.13445
-0.280524
0.393198
0.512659
-0.375548
-0.160239
0.322652
-0.199983
-0.150828
0.927273
-0.445356
-0.189972
-1.48922
0.339939
0.101174
0.798947
1.41325
-0.0353237
-0.444864
0.286286
0.464222
-1.06048
-1.1141
-1.91079
0.0369917
-0.656452
-2.14311
-1.24475
0.734731
-0.217175
2.55681
0.306706
-0.878323
2.42535
0.505205
0.472607
1.24409
1.63536
1.90861
-0.832826
1.89121
-0.230325
0.278945
0.928235
0.467338
0.423514
1.2223
-0.0936219
-0.143618
-0.840706
-0.444675
-0.448078
0.892136
0.839559
-1.13887
-0.177386
0.116317
1.0673
-0.296758
0.17399
-0.979308
1.05505
-0.555955
-0.491901
0.33378
1.12199
1.32559
-1.26816
0.20423
0.162346
-0.0581171
0.0643369
-0.184507
0.564809
-0.107523
0.868833
0.0129222
1.67784
-0.465263
-0.455258
